digraph Tree {
node [shape=box, style="filled, rounded", color="black", fontname=helvetica] ;
edge [fontname=helvetica] ;
0 [label="accB downregulated <= 0.5\ngini = 0.381\nsamples = 20\nvalue = [2, 6, 26]\nclass = None", fillcolor="#a572ec"] ;
1 [label="gini = 0.0\nsamples = 11\nvalue = [0, 0, 19]\nclass = None", fillcolor="#8139e5"] ;
0 -> 1 [labeldistance=2.5, labelangle=45, headlabel="True"] ;
2 [label="metU upregulated <= 0.5\ngini = 0.604\nsamples = 9\nvalue = [2, 6, 7]\nclass = None", fillcolor="#f1e9fc"] ;
0 -> 2 [labeldistance=2.5, labelangle=-45, headlabel="False"] ;
3 [label="gini = 0.0\nsamples = 3\nvalue = [0, 0, 6]\nclass = None", fillcolor="#8139e5"] ;
2 -> 3 ;
4 [label="cusB upregulated <= 0.5\ngini = 0.494\nsamples = 6\nvalue = [2, 6, 1]\nclass = Antagonism", fillcolor="#8ef0b7"] ;
2 -> 4 ;
5 [label="mnmE upregulated <= 0.5\ngini = 0.245\nsamples = 5\nvalue = [0, 6, 1]\nclass = Antagonism", fillcolor="#5ae996"] ;
4 -> 5 ;
6 [label="gini = 0.0\nsamples = 3\nvalue = [0, 5, 0]\nclass = Antagonism", fillcolor="#39e581"] ;
5 -> 6 ;
7 [label="dnaE mixed <= 0.5\ngini = 0.5\nsamples = 2\nvalue = [0, 1, 1]\nclass = Antagonism", fillcolor="#ffffff"] ;
5 -> 7 ;
8 [label="gini = 0.0\nsamples = 1\nvalue = [0, 1, 0]\nclass = Antagonism", fillcolor="#39e581"] ;
7 -> 8 ;
9 [label="gini = 0.0\nsamples = 1\nvalue = [0, 0, 1]\nclass = None", fillcolor="#8139e5"] ;
7 -> 9 ;
10 [label="gini = 0.0\nsamples = 1\nvalue = [2, 0, 0]\nclass = Synergy", fillcolor="#e58139"] ;
4 -> 10 ;
}